digraph Tree {
node [shape=box] ;
0 [label="CrawlIssues <= 12.5\ngini = 0.491\nsamples = 92\nvalue = [52, 40]"] ;
1 [label="ErrorCount <= 3.5\ngini = 0.467\nsamples = 43\nvalue = [16, 27]"] ;
0 -> 1 [labeldistance=2.5, labelangle=45, headlabel="True"] ;
2 [label="URLCount <= 35.0\ngini = 0.375\nsamples = 32\nvalue = [8, 24]"] ;
1 -> 2 ;
3 [label="ErrorCount <= 0.5\ngini = 0.227\nsamples = 23\nvalue = [3, 20]"] ;
2 -> 3 ;
4 [label="IncorrectGuidance <= 0.5\ngini = 0.32\nsamples = 15\nvalue = [3, 12]"] ;
3 -> 4 ;
5 [label="R1Time <= 65.0\ngini = 0.245\nsamples = 14\nvalue = [2, 12]"] ;
4 -> 5 ;
6 [label="gini = 0.444\nsamples = 3\nvalue = [1, 2]"] ;
5 -> 6 ;
7 [label="gini = 0.165\nsamples = 11\nvalue = [1, 10]"] ;
5 -> 7 ;
8 [label="gini = 0.0\nsamples = 1\nvalue = [1, 0]"] ;
4 -> 8 ;
9 [label="gini = 0.0\nsamples = 8\nvalue = [0, 8]"] ;
3 -> 9 ;
10 [label="R2Time <= 150.0\ngini = 0.494\nsamples = 9\nvalue = [5, 4]"] ;
2 -> 10 ;
11 [label="R2Time <= 90.0\ngini = 0.49\nsamples = 7\nvalue = [3, 4]"] ;
10 -> 11 ;
12 [label="R1Time <= 129.5\ngini = 0.48\nsamples = 5\nvalue = [3, 2]"] ;
11 -> 12 ;
13 [label="gini = 0.0\nsamples = 2\nvalue = [2, 0]"] ;
12 -> 13 ;
14 [label="gini = 0.444\nsamples = 3\nvalue = [1, 2]"] ;
12 -> 14 ;
15 [label="gini = 0.0\nsamples = 2\nvalue = [0, 2]"] ;
11 -> 15 ;
16 [label="gini = 0.0\nsamples = 2\nvalue = [2, 0]"] ;
10 -> 16 ;
17 [label="R2Time <= 105.0\ngini = 0.397\nsamples = 11\nvalue = [8, 3]"] ;
1 -> 17 ;
18 [label="R2Time <= 85.0\ngini = 0.32\nsamples = 10\nvalue = [8, 2]"] ;
17 -> 18 ;
19 [label="URLCount <= 24.0\ngini = 0.375\nsamples = 8\nvalue = [6, 2]"] ;
18 -> 19 ;
20 [label="R1Time <= 110.0\ngini = 0.444\nsamples = 3\nvalue = [1, 2]"] ;
19 -> 20 ;
21 [label="gini = 0.0\nsamples = 1\nvalue = [0, 1]"] ;
20 -> 21 ;
22 [label="gini = 0.5\nsamples = 2\nvalue = [1, 1]"] ;
20 -> 22 ;
23 [label="gini = 0.0\nsamples = 5\nvalue = [5, 0]"] ;
19 -> 23 ;
24 [label="gini = 0.0\nsamples = 2\nvalue = [2, 0]"] ;
18 -> 24 ;
25 [label="gini = 0.0\nsamples = 1\nvalue = [0, 1]"] ;
17 -> 25 ;
26 [label="ErrorCount <= 2.5\ngini = 0.39\nsamples = 49\nvalue = [36, 13]"] ;
0 -> 26 [labeldistance=2.5, labelangle=-45, headlabel="False"] ;
27 [label="R1Time <= 145.0\ngini = 0.457\nsamples = 17\nvalue = [6, 11]"] ;
26 -> 27 ;
28 [label="URLCount <= 23.0\ngini = 0.486\nsamples = 12\nvalue = [5, 7]"] ;
27 -> 28 ;
29 [label="gini = 0.0\nsamples = 3\nvalue = [3, 0]"] ;
28 -> 29 ;
30 [label="ErrorCount <= 1.5\ngini = 0.346\nsamples = 9\nvalue = [2, 7]"] ;
28 -> 30 ;
31 [label="gini = 0.0\nsamples = 3\nvalue = [0, 3]"] ;
30 -> 31 ;
32 [label="CrawlIssues <= 98.0\ngini = 0.444\nsamples = 6\nvalue = [2, 4]"] ;
30 -> 32 ;
33 [label="gini = 0.0\nsamples = 1\nvalue = [1, 0]"] ;
32 -> 33 ;
34 [label="gini = 0.32\nsamples = 5\nvalue = [1, 4]"] ;
32 -> 34 ;
35 [label="R2Time <= 50.0\ngini = 0.32\nsamples = 5\nvalue = [1, 4]"] ;
27 -> 35 ;
36 [label="gini = 0.0\nsamples = 1\nvalue = [0, 1]"] ;
35 -> 36 ;
37 [label="R1Time <= 165.0\ngini = 0.375\nsamples = 4\nvalue = [1, 3]"] ;
35 -> 37 ;
38 [label="gini = 0.0\nsamples = 2\nvalue = [0, 2]"] ;
37 -> 38 ;
39 [label="R2Time <= 80.0\ngini = 0.5\nsamples = 2\nvalue = [1, 1]"] ;
37 -> 39 ;
40 [label="gini = 0.0\nsamples = 1\nvalue = [1, 0]"] ;
39 -> 40 ;
41 [label="gini = 0.0\nsamples = 1\nvalue = [0, 1]"] ;
39 -> 41 ;
42 [label="URLCount <= 13.5\ngini = 0.117\nsamples = 32\nvalue = [30, 2]"] ;
26 -> 42 ;
43 [label="gini = 0.0\nsamples = 1\nvalue = [0, 1]"] ;
42 -> 43 ;
44 [label="R1Time <= 260.0\ngini = 0.062\nsamples = 31\nvalue = [30, 1]"] ;
42 -> 44 ;
45 [label="gini = 0.0\nsamples = 30\nvalue = [30, 0]"] ;
44 -> 45 ;
46 [label="gini = 0.0\nsamples = 1\nvalue = [0, 1]"] ;
44 -> 46 ;
}