digraph Tree {
node [shape=box] ;
0 [label="SloppyError <= 0.5\ngini = 0.491\nsamples = 92\nvalue = [52, 40]"] ;
1 [label="ErrorCount <= 2.5\ngini = 0.419\nsamples = 57\nvalue = [17, 40]"] ;
0 -> 1 [labeldistance=2.5, labelangle=45, headlabel="True"] ;
2 [label="IncorrectVariant <= 0.5\ngini = 0.188\nsamples = 38\nvalue = [4, 34]"] ;
1 -> 2 ;
3 [label="Other? <= 0.5\ngini = 0.105\nsamples = 36\nvalue = [2, 34]"] ;
2 -> 3 ;
4 [label="IncorrectGuidance <= 0.5\ngini = 0.056\nsamples = 35\nvalue = [1, 34]"] ;
3 -> 4 ;
5 [label="gini = 0.0\nsamples = 34\nvalue = [0, 34]"] ;
4 -> 5 ;
6 [label="gini = 0.0\nsamples = 1\nvalue = [1, 0]"] ;
4 -> 6 ;
7 [label="gini = 0.0\nsamples = 1\nvalue = [1, 0]"] ;
3 -> 7 ;
8 [label="gini = 0.0\nsamples = 2\nvalue = [2, 0]"] ;
2 -> 8 ;
9 [label="WebsitePriority <= 3.5\ngini = 0.432\nsamples = 19\nvalue = [13, 6]"] ;
1 -> 9 ;
10 [label="URLCount <= 25.0\ngini = 0.231\nsamples = 15\nvalue = [13, 2]"] ;
9 -> 10 ;
11 [label="MXQA_Encoded <= 25.0\ngini = 0.444\nsamples = 3\nvalue = [1, 2]"] ;
10 -> 11 ;
12 [label="gini = 0.0\nsamples = 1\nvalue = [1, 0]"] ;
11 -> 12 ;
13 [label="gini = 0.0\nsamples = 2\nvalue = [0, 2]"] ;
11 -> 13 ;
14 [label="gini = 0.0\nsamples = 12\nvalue = [12, 0]"] ;
10 -> 14 ;
15 [label="gini = 0.0\nsamples = 4\nvalue = [0, 4]"] ;
9 -> 15 ;
16 [label="gini = 0.0\nsamples = 35\nvalue = [35, 0]"] ;
0 -> 16 [labeldistance=2.5, labelangle=-45, headlabel="False"] ;
}